digraph Tree {
node [shape=box, fontname="helvetica"] ;
edge [fontname="helvetica"] ;
0 [label="X[2] <= 2.45\nentropy = 1.585\nsamples = 149\nvalue = [49, 50, 50]"] ;
1 [label="entropy = 0.0\nsamples = 49\nvalue = [49, 0, 0]"] ;
0 -> 1 [labeldistance=2.5, labelangle=45, headlabel="True"] ;
2 [label="X[3] <= 1.75\nentropy = 1.0\nsamples = 100\nvalue = [0, 50, 50]"] ;
0 -> 2 [labeldistance=2.5, labelangle=-45, headlabel="False"] ;
3 [label="entropy = 0.445\nsamples = 54\nvalue = [0, 49, 5]"] ;
2 -> 3 ;
4 [label="entropy = 0.151\nsamples = 46\nvalue = [0, 1, 45]"] ;
2 -> 4 ;
}